{
  "input_nodes": 5,
  "hidden_nodes": 8,
  "output_nodes": 2,
  "weights_ih": {
    "rows": 8,
    "cols": 5,
    "data": [
      [
        0.0551042942135819,
        -0.6962630249434295,
        0.9146718881207241,
        0.71558313618932,
        -0.4828905378445749
      ],
      [
        -0.1400167664531401,
        -0.5208928638022565,
        -0.7943945976845831,
        -0.689406260144448,
        -0.6809155713948603
      ],
      [
        0.03782826416770568,
        -0.9433835414612872,
        0.49119239786385105,
        -0.4926512672314587,
        0.5676748611477668
      ],
      [
        0.7353092017701384,
        -0.9427138817823235,
        1.1352899881936798,
        0.3590027393453945,
        -0.30970216490492497
      ],
      [
        -0.7100414063662474,
        0.3237262588928972,
        -0.003951314438911169,
        1.1611011493361554,
        -0.5376895983522483
      ],
      [
        0.7980728227744537,
        0.26262578741097886,
        0.8966180501201775,
        0.5709768662800436,
        0.3083582025857218
      ],
      [
        1.1021961837392162,
        -0.4585220592572095,
        -0.4505434707985268,
        0.2629173422706761,
        0.21290385529101885
      ],
      [
        -0.826552692944337,
        -0.3649375966942229,
        0.5455705853909393,
        -0.8897912634051853,
        -0.09884408293498377
      ]
    ]
  },
  "weights_ho": {
    "rows": 2,
    "cols": 8,
    "data": [
      [
        0.5615216488791344,
        -0.5648334629769869,
        -0.17092270259404257,
        -0.46860776303277396,
        -0.659185303780804,
        -0.22540319850778578,
        0.2019367363408392,
        0.392992662597565
      ],
      [
        -0.8688509395577917,
        -0.22665507938698798,
        0.07601051489587327,
        -0.4970161462393651,
        0.6767249652111123,
        0.7495195186341213,
        -0.819876804543735,
        0.8096034589956509
      ]
    ]
  },
  "bias_h": {
    "rows": 8,
    "cols": 1,
    "data": [
      [
        0.8046453074295239
      ],
      [
        -0.7056949137713182
      ],
      [
        -0.20516428804591458
      ],
      [
        0.4306983488016307
      ],
      [
        0.6392725833382691
      ],
      [
        0.32492013632894245
      ],
      [
        -0.02004430294550774
      ],
      [
        0.3191998853490018
      ]
    ]
  },
  "bias_o": {
    "rows": 2,
    "cols": 1,
    "data": [
      [
        -0.49282109229004334
      ],
      [
        -0.746012124659427
      ]
    ]
  },
  "learning_rate": 0.1,
  "activation_function": {}
}
